Language model created by QuickLM on Sun May 26 13:37:44 EDT 2019
Copyright (c) 1996-2010 Carnegie Mellon University and Alexander I. Rudnicky

The model is in standard ARPA format, designed by Doug Paul while he was at MITRE.

The code that was used to produce this language model is available in Open Source.
Please visit http://www.speech.cs.cmu.edu/tools/ for more information

The (fixed) discount mass is 0.5. The backoffs are computed using the ratio method.
This model based on a corpus of 4 sentences and 7 words

\data\
ngram 1=7
ngram 2=9
ngram 3=8

\1-grams:
-0.9294 </s> -0.3010
-0.9294 <s> -0.2467
-1.2304 LIGHTS -0.2747
-1.5315 OFF -0.2467
-1.5315 ON -0.2467
-0.9294 SHIRKA -0.2009
-1.5315 STATUS -0.2467

\2-grams:
-0.3010 <s> SHIRKA 0.0000
-0.6021 LIGHTS OFF 0.0000
-0.6021 LIGHTS ON 0.0000
-0.3010 OFF </s> -0.3010
-0.3010 ON </s> -0.3010
-0.9031 SHIRKA </s> -0.3010
-0.6021 SHIRKA LIGHTS 0.0000
-0.9031 SHIRKA STATUS 0.0000
-0.3010 STATUS </s> -0.3010

\3-grams:
-0.9031 <s> SHIRKA </s>
-0.6021 <s> SHIRKA LIGHTS
-0.9031 <s> SHIRKA STATUS
-0.3010 LIGHTS OFF </s>
-0.3010 LIGHTS ON </s>
-0.6021 SHIRKA LIGHTS OFF
-0.6021 SHIRKA LIGHTS ON
-0.3010 SHIRKA STATUS </s>

\end\
