Language model created by QuickLM on Sun Jun  2 15:11:57 EDT 2019
Copyright (c) 1996-2010 Carnegie Mellon University and Alexander I. Rudnicky

The model is in standard ARPA format, designed by Doug Paul while he was at MITRE.

The code that was used to produce this language model is available in Open Source.
Please visit http://www.speech.cs.cmu.edu/tools/ for more information

The (fixed) discount mass is 0.5. The backoffs are computed using the ratio method.
This model based on a corpus of 3 sentences and 6 words

\data\
ngram 1=6
ngram 2=7
ngram 3=5

\1-grams:
-0.8653 </s> -0.3010
-0.8653 <s> -0.2374
-1.0414 LIGHTS -0.2596
-1.3424 OFF -0.2374
-1.3424 ON -0.2374
-1.3424 STATUS -0.2374

\2-grams:
-0.4771 <s> LIGHTS 0.0000
-0.7782 <s> STATUS 0.0000
-0.6021 LIGHTS OFF 0.0000
-0.6021 LIGHTS ON 0.0000
-0.3010 OFF </s> -0.3010
-0.3010 ON </s> -0.3010
-0.3010 STATUS </s> -0.3010

\3-grams:
-0.6021 <s> LIGHTS OFF
-0.6021 <s> LIGHTS ON
-0.3010 <s> STATUS </s>
-0.3010 LIGHTS OFF </s>
-0.3010 LIGHTS ON </s>

\end\
