Language model created by QuickLM on Sun Jun  2 15:19:52 EDT 2019
Copyright (c) 1996-2010 Carnegie Mellon University and Alexander I. Rudnicky

The model is in standard ARPA format, designed by Doug Paul while he was at MITRE.

The code that was used to produce this language model is available in Open Source.
Please visit http://www.speech.cs.cmu.edu/tools/ for more information

The (fixed) discount mass is 0.5. The backoffs are computed using the ratio method.
This model based on a corpus of 4 sentences and 8 words

\data\
ngram 1=8
ngram 2=10
ngram 3=7

\1-grams:
-0.8751 </s> -0.3010
-0.8751 <s> -0.2389
-1.4771 DOOR -0.2863
-1.1761 LIGHTS -0.2711
-1.4771 OFF -0.2389
-1.4771 ON -0.2389
-1.4771 SHIRKA -0.2389
-1.4771 STATUS -0.2389

\2-grams:
-0.9031 <s> DOOR 0.0000
-0.6021 <s> LIGHTS 0.0000
-0.9031 <s> SHIRKA 0.0000
-0.3010 DOOR STATUS 0.0000
-0.6021 LIGHTS OFF 0.0000
-0.6021 LIGHTS ON 0.0000
-0.3010 OFF </s> -0.3010
-0.3010 ON </s> -0.3010
-0.3010 SHIRKA </s> -0.3010
-0.3010 STATUS </s> -0.3010

\3-grams:
-0.3010 <s> DOOR STATUS
-0.6021 <s> LIGHTS OFF
-0.6021 <s> LIGHTS ON
-0.3010 <s> SHIRKA </s>
-0.3010 DOOR STATUS </s>
-0.3010 LIGHTS OFF </s>
-0.3010 LIGHTS ON </s>

\end\
