Language model created by QuickLM on Sun May 26 04:52:35 EDT 2019
Copyright (c) 1996-2010 Carnegie Mellon University and Alexander I. Rudnicky

The model is in standard ARPA format, designed by Doug Paul while he was at MITRE.

The code that was used to produce this language model is available in Open Source.
Please visit http://www.speech.cs.cmu.edu/tools/ for more information

The (fixed) discount mass is 0.5. The backoffs are computed using the ratio method.
This model based on a corpus of 4 sentences and 7 words

\data\
ngram 1=7
ngram 2=9
ngram 3=6

\1-grams:
-0.8451 </s> -0.3010
-0.8451 <s> -0.2341
-1.1461 LIGHTS -0.2688
-1.4472 OFF -0.2341
-1.4472 ON -0.2341
-1.4472 SHIRKA -0.2341
-1.4472 STATUS -0.2341

\2-grams:
-0.6021 <s> LIGHTS 0.0000
-0.9031 <s> SHIRKA 0.0000
-0.9031 <s> STATUS 0.0000
-0.6021 LIGHTS OFF 0.0000
-0.6021 LIGHTS ON 0.0000
-0.3010 OFF </s> -0.3010
-0.3010 ON </s> -0.3010
-0.3010 SHIRKA </s> -0.3010
-0.3010 STATUS </s> -0.3010

\3-grams:
-0.6021 <s> LIGHTS OFF
-0.6021 <s> LIGHTS ON
-0.3010 <s> SHIRKA </s>
-0.3010 <s> STATUS </s>
-0.3010 LIGHTS OFF </s>
-0.3010 LIGHTS ON </s>

\end\
